#ifndef ANNW_H
#define ANNW_H

#define Q_LAYER1        220
#define Q_LAYER2        451

#define PRICE_LAYER1    60
#define PRICE_LAYER2    6

#define DEMAND_LAYER1   110
#define DEMAND_LAYER2   11

#define MAX_PRICE_NEURONS   10
#define MAX_DEMAND_NEURONS  10

#define PRICE_NEURONS1      10
#define PRICE_NEURONS2      5
#define PRICE_NEURONS3      1

#define DEMAND_NEURONS1     10
#define DEMAND_NEURONS2     10
#define DEMAND_NEURONS3     1

#define Q_NEURONS1          21
#define Q_NEURONS2          10
#define Q_NEURONS3          41

float Q_weights[2][Q_LAYER2] = {{-0.783741, -0.614180, -1.256680, -0.560312, -0.512357, 0.059688, -0.035677, 0.440000, 0.050000, -0.023091, -0.609450, -0.894763, -0.694668, 0.050000, -0.480000, 0.444120, -0.499056, -0.459765, -0.991471, -0.503461, -0.657840, -1.878416, -0.893368, -1.979461, -0.145161, -1.021759, 0.144839, 0.837702, -0.150000, -0.170000, -0.267811, -1.616378, -1.657320, -0.892181, -0.320000, 0.190000, -0.067240, -0.743412, -1.096268, -0.789619, -0.465089, -0.473889, -2.279179, -0.225926, -1.212415, -1.475898, -0.495370, -1.995898, 0.087046, -0.220000, -0.240000, -1.731258, -0.453373, -0.887711, -1.372894, 0.280000, 0.410000, 0.041237, 0.317661, -1.229938, -2.249915, -0.434907, -2.064323, -0.584235, -0.867392, -0.100275, -0.431858, -0.624221, -0.241858, -0.623946, -0.060000, 0.410000, -0.124668, -1.104439, -0.729739, 0.068621, 0.350000, -0.160000, -0.402389, -0.415722, 0.034001, -0.612407, -0.438074, -0.862017, -1.117901, -1.005519, -0.456952, 0.034024, -0.306344, 0.314024, 0.560608, 0.060000, 0.480000, -0.996131, -0.413962, -1.355563, -0.925913, -0.260000, -0.040000, -0.072267, 0.000073, -0.468488, -1.376250, -0.169552, -0.558218, -0.482069, -0.913690, -0.185680, -0.411510, -0.805301, -0.501510, 0.320379, 0.230000, -0.150000, -0.629093, -1.112303, -0.767311, -0.764967, 0.100000, -0.300000, 0.240536, -0.646969, -0.010846, -0.489526, -0.303988, -0.880836, -0.671605, -0.604503, -0.415631, -0.775364, -1.008287, -0.815364, -0.702655, 0.050000, 0.010000, -0.483621, -0.870683, -0.965491, -0.032265, 0.340000, -0.320000, -0.209419, -0.160379, 0.181498, -0.762784, 0.282873, -1.024844, -1.607238, -0.785545, -0.939521, -0.155745, -0.928229, 0.534255, -0.368708, -0.190000, -0.290000, -0.105208, -1.648186, -1.732278, -0.612387, -0.340000, -0.270000, -0.496535, -0.340635, -0.826351, -1.147566, -0.203422, -0.332835, -1.725181, -0.769607, -0.762520, -1.148313, -0.704171, -0.738314, -0.411651, -0.430000, 0.270000, -0.937717, -0.979174, -0.574069, -0.589921, -0.100000, -0.210000, -0.284081, -0.243537, -0.240835, -1.505517, 0.179213, -1.078176, -1.238347, -0.650275, -0.022603, -0.682032, -0.534830, -0.342032, -0.462227, -0.350000, -0.190000, -0.189834, -0.941200, -0.936518, -0.395692, 0.450000, -0.380000, 0.300754, -0.048486, -0.557855, -1.073877, 0.338939, -1.129860, -1.551212, -1.964747, -2.312519, -1.321844, -1.172638, -1.336561, -1.802895, -0.842826, -1.272843, -1.245129}, {-0.303463, 0.068607, -0.030277, 0.386721, -0.284182, -0.018401, -0.060710, -0.032239, 0.269706, 0.550548, 0.310000, -0.120000, 0.350000, 0.260000, 0.000000, 0.120000, -0.380000, 0.190000, -0.340000, 0.500000, -0.476806, -0.129944, -0.389752, 0.274989, 0.382734, -0.060593, 0.408089, 0.480953, -0.327321, 0.320876, 0.221364, -0.169603, -0.050544, -0.032122, -0.303153, 0.083504, 0.438866, -0.098076, 0.437515, -0.060524, 1.235979, 1.024984, 2.747247, -0.070878, 2.277153, 0.017664, 0.692816, 1.071373, 0.711924, 0.254426, 0.090000, 0.450000, -0.120000, 0.200000, 0.200000, -0.240000, -0.370000, 0.100000, -0.260000, -0.200000, -0.080000, 0.430000, 0.130000, 0.280000, -0.410000, 0.280000, -0.160000, 0.200000, -0.320000, -0.260000, -0.313197, 0.093668, 0.458619, 0.452834, 0.311718, -0.064275, -0.288776, 0.334681, -0.473024, -0.456857, 0.709739, 0.830236, 1.713447, 0.036787, 0.601231, 0.722258, 0.092333, 0.257637, 0.838222, 1.139046, 0.464798, 0.257821, -0.016371, 0.517341, 0.159407, 0.174973, -0.265215, 0.434132, -0.167056, 0.056036, -0.415479, -0.188791, 0.480982, -0.350186, -0.316674, 0.156187, -0.029879, -0.319067, -0.174482, -0.028136, -0.185135, 0.432202, -0.441324, 0.005542, 0.519604, -0.057378, 0.521878, -0.168009, 0.315792, -0.283621, 0.268356, 0.016273, 0.274413, -0.300128, 0.378348, -0.258426, 0.294405, -0.518264, -0.470680, 0.495521, -0.100101, -0.413687, -0.178911, -0.194862, -0.352266, -0.015367, 0.674673, 0.035495, 0.191099, -0.281570, 0.569230, 0.351845, -0.448620, -0.133195, 0.545208, 0.571136, 0.218731, 0.379011, -0.068830, -0.097451, 0.390000, 0.480000, 0.220000, 0.150000, -0.300000, 0.100000, 0.390000, 0.450000, 0.100000, 0.420000, 0.524908, 0.423246, -0.506519, -0.070506, -0.376050, -0.368684, 0.282534, 0.494794, 0.049509, -0.175518, -0.437642, 0.091884, -0.357946, -0.414320, 0.228861, -0.309442, -0.432117, -0.465865, 0.434017, -0.214612, -0.240922, 0.312505, -0.256882, 0.475352, -0.014291, -0.056864, 0.212585, -0.145663, -0.087000, -0.315514, -0.155751, -0.153025, 0.328728, -0.110724, 0.293719, -0.315102, 0.708346, -0.205552, -0.318525, 0.535210, 1.300616, 2.155740, 4.035783, 0.264131, 3.409469, 0.804670, -0.256882, 1.392275, 0.802147, 0.774951, 0.059171, -0.049166, 0.071450, 0.446018, -0.054738, -0.376514, -0.482331, 0.507486, -0.152143, 0.096079, 1.326053, 1.047953, 2.072666, 0.940461, 0.917604, 0.802154, 0.754979, 0.689690, 1.785886, 1.821098, -0.230760, -0.171967, 0.010233, 0.318228, -0.453790, 0.196352, -0.476085, 0.398003, 0.419879, -0.269737, 0.278147, -0.076196, 0.181224, 0.123532, -0.277328, -0.275913, 0.114095, -0.201285, 0.497600, 0.290151, 0.287826, -0.433540, -0.150008, 0.127180, -0.288214, -0.265494, -0.323074, 0.018829, 0.078269, 0.402664, 1.056187, 2.835192, 1.933014, -0.222483, 1.439751, 1.271993, -0.114986, 0.604046, 1.884914, 1.815469, 0.407561, 0.356755, -0.039992, 0.055919, -0.396808, 0.095866, 0.149569, -0.116290, 0.376716, 0.123161, -0.420000, 0.210000, 0.220000, -0.070000, -0.090000, 0.440000, 0.210000, 0.080000, -0.030000, -0.210000, 0.029754, -0.097844, -0.356899, 0.261680, 0.355832, 0.342791, -0.371101, 0.472555, 0.014089, -0.247429, -0.441175, -0.088634, -0.333133, 0.095331, 0.545972, -0.292374, -0.357468, 0.140533, 0.127712, 0.480475, -0.155817, 0.202923, 0.180115, -0.388411, -0.344304, -0.376419, 0.563990, 0.452202, 0.188799, 0.046975, -2.273069, -1.125026, -2.406898, -0.462690, -2.677080, 0.326493, -1.375848, -1.335114, 0.368336, 0.100231, -0.251146, 0.156211, 0.460716, 0.142277, -0.339833, 0.590243, 0.080714, -0.264872, 0.106687, -0.411407, -0.211054, 0.398442, 0.257077, 0.449489, 0.423520, 0.406201, 0.667964, 0.372430, 0.218931, 0.256785, -0.220000, 0.280000, 0.320000, -0.390000, -0.470000, 0.240000, 0.270000, -0.410000, 0.190000, -0.100000, 0.165533, 0.375204, -0.446974, 0.164201, -0.311193, -0.275749, 0.383356, 0.154728, 0.007392, -0.213900, 0.170000, 0.130000, -0.440000, -0.090000, 0.010000, 0.460000, -0.240000, -0.020000, 0.320000, 0.420000, -0.372092, -0.399854, 0.199874, 0.470349, -0.289703, 0.231951, 0.241674, 0.470497, 0.310337, -0.126450, -0.119555, -0.049758, -0.259982, -0.058782, -0.447066, -0.105996, 0.255391, 0.122612, 0.481931, -0.421003, 0.324826, 0.171367, 0.170094, 0.374123, -0.394633, -0.322734, 0.382227, -0.040123, 0.155378, 0.184943, 1.569056, 0.280000, 1.857765, 1.911482, 3.080299, 0.430000, 0.170000, 1.702179, 1.311133, 1.817733, 1.883211, 1.524148, 1.588269, 1.744675, 1.088745, 0.480000, 1.595355, 2.349555, 1.549998, 1.400615, 1.505167, 1.448371, 1.115797, 1.301310, 1.325284, 0.829799, 1.608610, 1.117090, -0.080000, 2.211139, 1.972606, 2.189435, 3.153223, 0.904243, 1.558553, -0.160000, 2.404624, -0.230000, 1.774974, 2.093883, 2.072216}};

float price_weights[2][PRICE_LAYER1] = {{-0.331527, -1.462680, -0.745876, -1.016664, -0.845549, -0.445563, -0.215404, -0.110174, -0.056237, -0.025899, -0.395795, 1.301826, -0.917475, 0.652453, -1.049279, -0.543463, -0.261531, -0.124254, -0.059255, -0.035531, -0.026273, 0.223879, -0.151332, -0.237687, -0.032468, -0.057025, 0.002014, 0.015006, 0.006975, -0.007657, 0.122631, -0.189155, 0.044457, 0.095536, 0.099103, -0.086532, 0.042659, 0.054650, 0.029149, -0.015728, 0.104680, 0.014104, 0.244346, 0.011922, 0.282009, 0.150034, 0.070675, 0.033981, 0.016671, 0.009661, -0.617790, -0.680463, 1.410592, -1.066232, -0.000599}, {-0.792138, -1.104466, 0.501581, -0.256860, -2.287993, -0.792586}};

float demand_weights[2][DEMAND_LAYER1] = {{0.291906, 0.263898, 0.074046, 0.250228, -0.063217, -0.021294, -0.069904, 0.014782, 0.080880, 0.048293, 1.702027, 0.868691, 0.431494, 1.690897, 1.003448, 2.103003, 1.160289, 0.569618, 0.295440, 0.141588, -1.630199, -0.759736, -0.377193, -1.583055, -0.903651, 1.306516, -1.019975, -0.520602, -0.239670, -0.139123, -0.119011, -0.003781, -0.000712, 0.688285, -0.021251, -0.551602, -0.052172, -0.004450, 0.000728, -0.014088, 1.059575, 0.584615, 0.291361, 1.609035, 0.663746, -3.287695, 0.724046, 0.379781, 0.197312, 0.075039, 0.849871, 0.414400, 0.198102, -0.226463, 0.493757, 1.266057, 0.586872, 0.278639, 0.137998, 0.077449, -0.192423, 0.002644, 0.093997, -0.341784, -0.204017, 0.054015, -0.218640, 0.149917, 0.073511, 0.341286, -0.141208, -0.044285, -0.047733, -0.041142, 0.049568, 0.304119, -0.283603, -0.025540, -0.026574, -0.016842, 0.177142, -0.009206, 0.008963, 0.115267, 0.183256, -0.171746, 0.132800, 0.049470, 0.015571, 0.110591, -0.111468, -0.094956, -0.043586, 0.298327, -0.122175, 0.572255, -0.007261, -0.064540, -0.031429, 0.014476, -0.781861, -0.636664, 0.249132, -0.344155, -0.575038, -0.355170, 0.654163, 0.979171, -1.142860, 1.088503}, {0.135757, -1.520332, -0.906269, 1.320092, -1.569555, 1.016327, -0.068954, -0.554728, 0.562972, -0.988789, 1.421055}};


fix16_t Q_weightsf[2][Q_LAYER2] = {{-51363, -40251, -82358, -36721, -33578, 3912, -2338, 28836, 3277, -1513, -39941, -58639, -45526, 3277, -31457, 29106, -32706, -30131, -64977, -32995, -43112, -123104, -58548, -129726, -9513, -66962, 9492, 54900, -9830, -11141, -17551, -105931, -108614, -58470, -20972, 12452, -4407, -48720, -71845, -51748, -30480, -31057, -149368, -14806, -79457, -96724, -32465, -130803, 5705, -14418, -15729, -113460, -29712, -58177, -89974, 18350, 26870, 2703, 20818, -80605, -147450, -28502, -135287, -38288, -56845, -6572, -28302, -40909, -15850, -40891, -3932, 26870, -8170, -72381, -47824, 4497, 22938, -10486, -26371, -27245, 2228, -40135, -28710, -56493, -73263, -65898, -29947, 2230, -20077, 20580, 36740, 3932, 31457, -65282, -27129, -88838, -60681, -17039, -2621, -4736, 5, -30703, -90194, -11112, -36583, -31593, -59880, -12169, -26969, -52776, -32867, 20996, 15073, -9830, -41228, -72896, -50286, -50133, 6554, -19661, 15764, -42400, -711, -32082, -19922, -57726, -44014, -39617, -27239, -50814, -66079, -53436, -46049, 3277, 655, -31695, -57061, -63274, -2115, 22282, -20972, -13724, -10511, 11895, -49990, 18538, -67164, -105332, -51481, -61572, -10207, -60832, 35013, -24164, -12452, -19005, -6895, -108016, -113527, -40133, -22282, -17695, -32541, -22324, -54156, -75207, -13331, -21813, -113061, -50437, -49973, -75256, -46149, -48386, -26978, -28180, 17695, -61454, -64171, -37622, -38661, -6554, -13763, -18618, -15960, -15783, -98666, 11745, -70659, -81156, -42616, -1481, -44698, -35051, -22415, -30293, -22938, -12452, -12441, -61682, -61376, -25932, 29491, -24904, 19710, -3178, -36560, -70378, 22213, -74047, -101660, -128762, -151553, -86628, -76850, -87593, -118155, -55235, -83417, -81601}, {-19888, 4496, -1984, 25344, -18624, -1206, -3979, -2113, 17675, 36081, 20316, -7864, 22938, 17039, 0, 7864, -24904, 12452, -22282, 32768, -31248, -8516, -25543, 18022, 25083, -3971, 26745, 31520, -21451, 21029, 14507, -11115, -3312, -2105, -19867, 5473, 28762, -6428, 28673, -3967, 81001, 67173, 180044, -4645, 149236, 1158, 45404, 70214, 46657, 16674, 5898, 29491, -7864, 13107, 13107, -15729, -24248, 6554, -17039, -13107, -5243, 28180, 8520, 18350, -26870, 18350, -10486, 13107, -20972, -17039, -20526, 6139, 30056, 29677, 20429, -4212, -18925, 21934, -31000, -29941, 46513, 54410, 112292, 2411, 39402, 47334, 6051, 16884, 54934, 74649, 30461, 16897, -1073, 33904, 10447, 11467, -17381, 28451, -10948, 3672, -27229, -12373, 31522, -22950, -20754, 10236, -1958, -20910, -11435, -1844, -12133, 28325, -28923, 363, 34053, -3760, 34202, -11011, 20696, -18587, 17587, 1066, 17984, -19669, 24795, -16936, 19294, -33965, -30846, 32474, -6560, -27111, -11725, -12770, -23086, -1007, 44215, 2326, 12524, -18453, 37305, 23059, -29401, -8729, 35731, 37430, 14335, 24839, -4511, -6387, 25559, 31457, 14418, 9830, -19661, 6554, 25559, 29491, 6554, 27525, 34400, 27738, -33195, -4621, -24645, -24162, 18516, 32427, 3245, -11503, -28681, 6022, -23458, -27153, 14999, -20280, -28319, -30531, 28444, -14065, -15789, 20480, -16835, 31153, -937, -3727, 13932, -9546, -5702, -20678, -10207, -10029, 21544, -7256, 19249, -20651, 46422, -13471, -20875, 35076, 85237, 141279, 264489, 17310, 223443, 52735, -16835, 91244, 52570, 50787, 3878, -3222, 4683, 29230, -3587, -24675, -31610, 33259, -9971, 6297, 86904, 68679, 135834, 61634, 60136, 52570, 49478, 45200, 117040, 119347, -15123, -11270, 671, 20855, -29740, 12868, -31201, 26084, 27517, -17677, 18229, -4994, 11877, 8096, -18175, -18082, 7477, -13191, 32611, 19015, 18863, -28412, -9831, 8335, -18888, -17399, -21173, 1234, 5129, 26389, 69218, 185807, 126682, -14581, 94356, 83361, -7536, 39587, 123530, 118979, 26710, 23380, -2621, 3665, -26005, 6283, 9802, -7621, 24688, 8071, -27525, 13763, 14418, -4588, -5898, 28836, 13763, 5243, -1966, -13763, 1950, -6412, -23390, 17149, 23320, 22465, -24320, 30969, 923, -16216, -28913, -5809, -21832, 6248, 35781, -19161, -23427, 9210, 8370, 31488, -10212, 13299, 11804, -25455, -22564, -24669, 36962, 29636, 12373, 3079, -148968, -73730, -157738, -30323, -175445, 21397, -90168, -87498, 24139, 6569, -16459, 10237, 30193, 9324, -22271, 38682, 5290, -17359, 6992, -26962, -13832, 26112, 16848, 29458, 27756, 26621, 43776, 24408, 14348, 16829, -14418, 18350, 20972, -25559, -30802, 15729, 17695, -26870, 12452, -6554, 10848, 24589, -29293, 10761, -20394, -18071, 25124, 10140, 484, -14018, 11141, 8520, -28836, -5898, 655, 30147, -15729, -1311, 20972, 27525, -24385, -26205, 13099, 30825, -18986, 15201, 15838, 30834, 20338, -8287, -7835, -3261, -17038, -3852, -29299, -6947, 16737, 8036, 31584, -27591, 21288, 11231, 11147, 24519, -25863, -21151, 25050, -2630, 10183, 12120, 102830, 18350, 121750, 125271, 201870, 28180, 11141, 111554, 85926, 119127, 123418, 99887, 104089, 114339, 71352, 31457, 104553, 153980, 101581, 91791, 98643, 94920, 73125, 85283, 86854, 54382, 105422, 73210, -5243, 144909, 129277, 143487, 206650, 59260, 102141, -10486, 157589, -15073, 116325, 137225, 135805}};

fix16_t price_weightsf[2][PRICE_LAYER1] = {{-21727, -95858, -48882, -66628, -55414, -29200, -14117, -7220, -3686, -1697, -25939, 85316, -60128, 42759, -68766, -35616, -17140, -8143, -3883, -2329, -1722, 14672, -9918, -15577, -2128, -3737, 132, 983, 457, -502, 8037, -12396, 2914, 6261, 6495, -5671, 2796, 3582, 1910, -1031, 6860, 924, 16013, 781, 18482, 9833, 4632, 2227, 1093, 633, -40487, -44595, 92445, -69877, -39}, {-51914, -72382, 32872, -16834, -149946, -51943}}; 

fix16_t demand_weightsf[2][DEMAND_LAYER1] = {{19130, 17295, 4853, 16399, -4143, -1396, -4581, 969, 5301, 3165, 111544, 56931, 28278, 110815, 65762, 137822, 76041, 37330, 19362, 9279, -106837, -49790, -24720, -103747, -59222, 85624, -66845, -34118, -15707, -9118, -7800, -248, -47, 45107, -1393, -36150, -3419, -292, 48, -923, 69440, 38313, 19095, 105450, 43499, -215462, 47451, 24889, 12931, 4918, 55697, 27158, 12983, -14841, 32359, 82972, 38461, 18261, 9044, 5076, -12611, 173, 6160, -22399, -13370, 3540, -14329, 9825, 4818, 22367, -9254, -2902, -3128, -2696, 3248, 19931, -18586, -1674, -1742, -1104, 11609, -603, 587, 7554, 12010, -11256, 8703, 3242, 1020, 7248, -7305, -6223, -2856, 19551, -8007, 37503, -476, -4230, -2060, 949, -51240, -41724, 16327, -22555, -37686, -23276, 42871, 64171, -74898, 71336}, {8897, -99636, -59393, 86514, -102862, 66606, -4519, -36355, 36895, -64801, 93130}};


#endif